Language model created by QuickLM on Sun Feb  7 02:14:16 EST 2021
Copyright (c) 1996-2010 Carnegie Mellon University and Alexander I. Rudnicky

The model is in standard ARPA format, designed by Doug Paul while he was at MITRE.

The code that was used to produce this language model is available in Open Source.
Please visit http://www.speech.cs.cmu.edu/tools/ for more information

The (fixed) discount mass is 0.5. The backoffs are computed using the ratio method.
This model based on a corpus of 19 sentences and 17 words

\data\
ngram 1=17
ngram 2=34
ngram 3=40

\1-grams:
-0.9361 </s> -0.3010
-0.9361 <s> -0.2476
-1.9138 AMAZON -0.2476
-1.9138 CHROME -0.2476
-1.5159 CLOSE -0.2709
-1.9138 EXCEL -0.2476
-1.9138 FLIPKART -0.2476
-1.7377 GMAIL -0.2476
-2.2148 HACKERRANK -0.2476
-2.2148 LEETCODE -0.2476
-1.9138 MICROSOFT -0.2957
-1.6128 NAVIGATE -0.2903
-1.9138 NOTEPAD -0.2476
-1.2148 OPEN -0.2476
-1.6128 TO -0.2765
-1.9138 WORD -0.2476
-1.9138 YOUTUBE -0.2476

\2-grams:
-0.8808 <s> CLOSE 0.0000
-0.9777 <s> NAVIGATE 0.0000
-0.5798 <s> OPEN 0.0000
-0.3010 AMAZON </s> -0.3010
-0.3010 CHROME </s> -0.3010
-1.0000 CLOSE CHROME 0.0000
-1.0000 CLOSE EXCEL 0.0000
-1.0000 CLOSE GMAIL 0.0000
-1.0000 CLOSE MICROSOFT 0.0000
-1.0000 CLOSE NOTEPAD 0.0000
-0.3010 EXCEL </s> -0.3010
-0.3010 FLIPKART </s> -0.3010
-0.3010 GMAIL </s> -0.3010
-0.3010 HACKERRANK </s> -0.3010
-0.3010 LEETCODE </s> -0.3010
-0.3010 MICROSOFT WORD 0.0000
-0.3010 NAVIGATE TO 0.0000
-0.3010 NOTEPAD </s> -0.3010
-1.3010 OPEN AMAZON 0.0000
-1.3010 OPEN CHROME 0.0000
-1.3010 OPEN EXCEL 0.0000
-1.3010 OPEN FLIPKART 0.0000
-1.3010 OPEN GMAIL 0.0000
-1.3010 OPEN HACKERRANK 0.0000
-1.3010 OPEN LEETCODE 0.0000
-1.3010 OPEN MICROSOFT 0.0000
-1.3010 OPEN NOTEPAD 0.0000
-1.3010 OPEN YOUTUBE 0.0000
-0.9031 TO AMAZON 0.0000
-0.9031 TO FLIPKART 0.0000
-0.9031 TO GMAIL 0.0000
-0.9031 TO YOUTUBE 0.0000
-0.3010 WORD </s> -0.3010
-0.3010 YOUTUBE </s> -0.3010

\3-grams:
-1.0000 <s> CLOSE CHROME
-1.0000 <s> CLOSE EXCEL
-1.0000 <s> CLOSE GMAIL
-1.0000 <s> CLOSE MICROSOFT
-1.0000 <s> CLOSE NOTEPAD
-0.3010 <s> NAVIGATE TO
-1.3010 <s> OPEN AMAZON
-1.3010 <s> OPEN CHROME
-1.3010 <s> OPEN EXCEL
-1.3010 <s> OPEN FLIPKART
-1.3010 <s> OPEN GMAIL
-1.3010 <s> OPEN HACKERRANK
-1.3010 <s> OPEN LEETCODE
-1.3010 <s> OPEN MICROSOFT
-1.3010 <s> OPEN NOTEPAD
-1.3010 <s> OPEN YOUTUBE
-0.3010 CLOSE CHROME </s>
-0.3010 CLOSE EXCEL </s>
-0.3010 CLOSE GMAIL </s>
-0.3010 CLOSE MICROSOFT WORD
-0.3010 CLOSE NOTEPAD </s>
-0.3010 MICROSOFT WORD </s>
-0.9031 NAVIGATE TO AMAZON
-0.9031 NAVIGATE TO FLIPKART
-0.9031 NAVIGATE TO GMAIL
-0.9031 NAVIGATE TO YOUTUBE
-0.3010 OPEN AMAZON </s>
-0.3010 OPEN CHROME </s>
-0.3010 OPEN EXCEL </s>
-0.3010 OPEN FLIPKART </s>
-0.3010 OPEN GMAIL </s>
-0.3010 OPEN HACKERRANK </s>
-0.3010 OPEN LEETCODE </s>
-0.3010 OPEN MICROSOFT WORD
-0.3010 OPEN NOTEPAD </s>
-0.3010 OPEN YOUTUBE </s>
-0.3010 TO AMAZON </s>
-0.3010 TO FLIPKART </s>
-0.3010 TO GMAIL </s>
-0.3010 TO YOUTUBE </s>

\end\